<?xml version="1.0"?>
<opencv_storage>
<stage11>
  <maxWeakCount>10</maxWeakCount>
  <stageThreshold>-8.7654459476470947e-01</stageThreshold>
  <weakClassifiers>
    <_>
      <internalNodes>
        0 -1 111289 -5.7184934616088867e-02</internalNodes>
      <leafValues>
        -8.8235294818878174e-01 1.8072289228439331e-01</leafValues></_>
    <_>
      <internalNodes>
        0 -1 132965 1.2773782946169376e-03</internalNodes>
      <leafValues>
        -3.4028851985931396e-01 5.0277864933013916e-01</leafValues></_>
    <_>
      <internalNodes>
        0 -1 161111 1.9429445965215564e-03</internalNodes>
      <leafValues>
        2.1013879776000977e-01 -9.3780112266540527e-01</leafValues></_>
    <_>
      <internalNodes>
        0 -1 10729 -3.6374945193529129e-02</internalNodes>
      <leafValues>
        2.7610287070274353e-01 -5.5584883689880371e-01</leafValues></_>
    <_>
      <internalNodes>
        0 -1 156702 -1.6443510539829731e-03</internalNodes>
      <leafValues>
        5.4674679040908813e-01 -2.9986995458602905e-01</leafValues></_>
    <_>
      <internalNodes>
        0 -1 64108 -1.3761647045612335e-01</internalNodes>
      <leafValues>
        -3.3024516701698303e-01 5.0861889123916626e-01</leafValues></_>
    <_>
      <internalNodes>
        0 -1 155182 1.0390988609287888e-04</internalNodes>
      <leafValues>
        2.9516118764877319e-01 -5.8753973245620728e-01</leafValues></_>
    <_>
      <internalNodes>
        0 -1 135815 -2.3114616051316261e-03</internalNodes>
      <leafValues>
        7.1967959403991699e-01 -2.4421955645084381e-01</leafValues></_>
    <_>
      <internalNodes>
        0 -1 135815 6.8837148137390614e-04</internalNodes>
      <leafValues>
        -3.5248360037803650e-01 4.7754076123237610e-01</leafValues></_>
    <_>
      <internalNodes>
        0 -1 156017 4.8876637592911720e-03</internalNodes>
      <leafValues>
        -2.8622856736183167e-01 5.5443805456161499e-01</leafValues></_></weakClassifiers></stage11>
</opencv_storage>
