<?xml version="1.0"?>
<opencv_storage>
<stage6>
  <maxWeakCount>8</maxWeakCount>
  <stageThreshold>-4.0446409583091736e-01</stageThreshold>
  <weakClassifiers>
    <_>
      <internalNodes>
        0 -1 152052 2.9943902045488358e-03</internalNodes>
      <leafValues>
        2.3275862634181976e-01 -7.9411762952804565e-01</leafValues></_>
    <_>
      <internalNodes>
        0 -1 146410 -1.3969436986371875e-03</internalNodes>
      <leafValues>
        5.8692598342895508e-01 -3.3521687984466553e-01</leafValues></_>
    <_>
      <internalNodes>
        0 -1 162081 -1.9837167928926647e-04</internalNodes>
      <leafValues>
        -8.7438386678695679e-01 2.2205604612827301e-01</leafValues></_>
    <_>
      <internalNodes>
        0 -1 156672 -5.7852894067764282e-02</internalNodes>
      <leafValues>
        -9.5300006866455078e-01 1.6846090555191040e-01</leafValues></_>
    <_>
      <internalNodes>
        0 -1 45542 1.5992482076399028e-04</internalNodes>
      <leafValues>
        -3.5094782710075378e-01 5.9586536884307861e-01</leafValues></_>
    <_>
      <internalNodes>
        0 -1 96830 -1.8576764268800616e-03</internalNodes>
      <leafValues>
        4.9914383888244629e-01 -4.1689491271972656e-01</leafValues></_>
    <_>
      <internalNodes>
        0 -1 2376 -1.6889778897166252e-02</internalNodes>
      <leafValues>
        5.2013242244720459e-01 -4.1865822672843933e-01</leafValues></_>
    <_>
      <internalNodes>
        0 -1 154136 1.6890658298507333e-03</internalNodes>
      <leafValues>
        -2.4776349961757660e-01 8.5844707489013672e-01</leafValues></_></weakClassifiers></stage6>
</opencv_storage>
