<?xml version="1.0"?>
<opencv_storage>
<stage7>
  <maxWeakCount>10</maxWeakCount>
  <stageThreshold>-7.9726356267929077e-01</stageThreshold>
  <weakClassifiers>
    <_>
      <internalNodes>
        0 -1 125413 2.5813016691245139e-04</internalNodes>
      <leafValues>
        -3.3689838647842407e-01 5.5752211809158325e-01</leafValues></_>
    <_>
      <internalNodes>
        0 -1 71544 1.6815849812701344e-04</internalNodes>
      <leafValues>
        1.8800942599773407e-01 -9.3245291709899902e-01</leafValues></_>
    <_>
      <internalNodes>
        0 -1 161432 -7.8206846956163645e-04</internalNodes>
      <leafValues>
        -8.3228778839111328e-01 2.1078276634216309e-01</leafValues></_>
    <_>
      <internalNodes>
        0 -1 93850 -9.5952837727963924e-04</internalNodes>
      <leafValues>
        5.8364045619964600e-01 -3.4935790300369263e-01</leafValues></_>
    <_>
      <internalNodes>
        0 -1 84270 3.0425968579947948e-03</internalNodes>
      <leafValues>
        -3.1419330835342407e-01 6.2453258037567139e-01</leafValues></_>
    <_>
      <internalNodes>
        0 -1 81168 1.0004052892327309e-02</internalNodes>
      <leafValues>
        2.1680451929569244e-01 -9.3526124954223633e-01</leafValues></_>
    <_>
      <internalNodes>
        0 -1 119595 -2.5710801128298044e-04</internalNodes>
      <leafValues>
        3.4367009997367859e-01 -4.5993062853813171e-01</leafValues></_>
    <_>
      <internalNodes>
        0 -1 154387 -3.9463007124140859e-04</internalNodes>
      <leafValues>
        4.7753953933715820e-01 -3.1928244233131409e-01</leafValues></_>
    <_>
      <internalNodes>
        0 -1 154525 5.8617326430976391e-04</internalNodes>
      <leafValues>
        -2.5721377134323120e-01 7.4073773622512817e-01</leafValues></_>
    <_>
      <internalNodes>
        0 -1 129429 2.0790912676602602e-03</internalNodes>
      <leafValues>
        -3.0898219347000122e-01 5.7050067186355591e-01</leafValues></_></weakClassifiers></stage7>
</opencv_storage>
