<?xml version="1.0"?>
<opencv_storage>
<stage13>
  <maxWeakCount>9</maxWeakCount>
  <stageThreshold>-2.3449893295764923e-01</stageThreshold>
  <weakClassifiers>
    <_>
      <internalNodes>
        0 -1 20273 -1.0304089635610580e-02</internalNodes>
      <leafValues>
        1.2878787517547607e-01 -9.4444441795349121e-01</leafValues></_>
    <_>
      <internalNodes>
        0 -1 132109 -2.3125205188989639e-02</internalNodes>
      <leafValues>
        -1.4174740016460419e-01 8.3441740274429321e-01</leafValues></_>
    <_>
      <internalNodes>
        0 -1 68120 3.8626644527539611e-04</internalNodes>
      <leafValues>
        -1.8286442756652832e-01 6.8998807668685913e-01</leafValues></_>
    <_>
      <internalNodes>
        0 -1 98125 -1.6245011240243912e-02</internalNodes>
      <leafValues>
        4.1335681080818176e-01 -3.2964703440666199e-01</leafValues></_>
    <_>
      <internalNodes>
        0 -1 118773 1.7120586708188057e-03</internalNodes>
      <leafValues>
        -2.8445348143577576e-01 4.8755729198455811e-01</leafValues></_>
    <_>
      <internalNodes>
        0 -1 54629 -2.1957706660032272e-02</internalNodes>
      <leafValues>
        5.4788488149642944e-01 -2.3820480704307556e-01</leafValues></_>
    <_>
      <internalNodes>
        0 -1 93296 3.3549742511240765e-05</internalNodes>
      <leafValues>
        3.2074484229087830e-01 -5.0545918941497803e-01</leafValues></_>
    <_>
      <internalNodes>
        0 -1 25974 1.9894209690392017e-03</internalNodes>
      <leafValues>
        1.8564188480377197e-01 -7.9889869689941406e-01</leafValues></_>
    <_>
      <internalNodes>
        0 -1 150989 1.6602235846221447e-03</internalNodes>
      <leafValues>
        -2.2427304089069366e-01 6.7983466386795044e-01</leafValues></_></weakClassifiers></stage13>
</opencv_storage>
