<?xml version="1.0"?>
<opencv_storage>
<stage8>
  <maxWeakCount>10</maxWeakCount>
  <stageThreshold>-5.7021039724349976e-01</stageThreshold>
  <weakClassifiers>
    <_>
      <internalNodes>
        0 -1 70560 4.4128822628408670e-04</internalNodes>
      <leafValues>
        1.7741934955120087e-01 -8.4615385532379150e-01</leafValues></_>
    <_>
      <internalNodes>
        0 -1 125052 -8.1349993706680834e-05</internalNodes>
      <leafValues>
        3.7541034817695618e-01 -3.6287805438041687e-01</leafValues></_>
    <_>
      <internalNodes>
        0 -1 151925 -1.0253209620714188e-02</internalNodes>
      <leafValues>
        3.5095384716987610e-01 -4.3447583913803101e-01</leafValues></_>
    <_>
      <internalNodes>
        0 -1 137366 -8.2114682300016284e-04</internalNodes>
      <leafValues>
        6.2758034467697144e-01 -2.5780320167541504e-01</leafValues></_>
    <_>
      <internalNodes>
        0 -1 154854 -5.5305019486695528e-05</internalNodes>
      <leafValues>
        5.8771955966949463e-01 -3.1058150529861450e-01</leafValues></_>
    <_>
      <internalNodes>
        0 -1 2211 2.0636839326471090e-03</internalNodes>
      <leafValues>
        2.0294491946697235e-01 -8.8430571556091309e-01</leafValues></_>
    <_>
      <internalNodes>
        0 -1 100 -2.7645351365208626e-03</internalNodes>
      <leafValues>
        -7.6503658294677734e-01 1.7784522473812103e-01</leafValues></_>
    <_>
      <internalNodes>
        0 -1 105661 -1.2230128049850464e-03</internalNodes>
      <leafValues>
        4.7888198494911194e-01 -3.6306047439575195e-01</leafValues></_>
    <_>
      <internalNodes>
        0 -1 145533 2.1429967135190964e-02</internalNodes>
      <leafValues>
        -3.6931774020195007e-01 5.3224080801010132e-01</leafValues></_>
    <_>
      <internalNodes>
        0 -1 158104 -1.3415599823929369e-04</internalNodes>
      <leafValues>
        -6.0477679967880249e-01 3.0953940749168396e-01</leafValues></_></weakClassifiers></stage8>
</opencv_storage>
